digraph Tree {
node [shape=box, style="filled", color="black"] ;
0 [label="Age <= 40.5\nentropy = 0.639\nsamples = 3972\nvalue = [3329, 643]", fillcolor="#e58139ce"] ;
1 [label="NumOfProducts <= 0.5\nentropy = 0.423\nsamples = 2613\nvalue = [2388, 225]", fillcolor="#e58139e7"] ;
0 -> 1 [labeldistance=2.5, labelangle=45, headlabel="True"] ;
2 [label="Balance <= 82417.391\nentropy = 0.314\nsamples = 1342\nvalue = [1266, 76]", fillcolor="#e58139f0"] ;
1 -> 2 ;
3 [label="Tenure <= 3.5\nentropy = 0.19\nsamples = 1028\nvalue = [998, 30]", fillcolor="#e58139f7"] ;
2 -> 3 ;
4 [label="EstimatedSalary <= 170915.219\nentropy = 0.3\nsamples = 338\nvalue = [320, 18]", fillcolor="#e58139f1"] ;
3 -> 4 ;
5 [label="EstimatedSalary <= 110480.812\nentropy = 0.218\nsamples = 288\nvalue = [278, 10]", fillcolor="#e58139f6"] ;
4 -> 5 ;
6 [label="entropy = 0.299\nsamples = 189\nvalue = [179, 10]", fillcolor="#e58139f1"] ;
5 -> 6 ;
7 [label="entropy = 0.0\nsamples = 99\nvalue = [99, 0]", fillcolor="#e58139ff"] ;
5 -> 7 ;
8 [label="Age <= 31.5\nentropy = 0.634\nsamples = 50\nvalue = [42, 8]", fillcolor="#e58139ce"] ;
4 -> 8 ;
9 [label="entropy = 0.0\nsamples = 15\nvalue = [15, 0]", fillcolor="#e58139ff"] ;
8 -> 9 ;
10 [label="entropy = 0.776\nsamples = 35\nvalue = [27, 8]", fillcolor="#e58139b3"] ;
8 -> 10 ;
11 [label="EstimatedSalary <= 709.9\nentropy = 0.127\nsamples = 690\nvalue = [678, 12]", fillcolor="#e58139fa"] ;
3 -> 11 ;
12 [label="entropy = 0.0\nsamples = 1\nvalue = [0, 1]", fillcolor="#399de5ff"] ;
11 -> 12 ;
13 [label="EstimatedSalary <= 7364.105\nentropy = 0.118\nsamples = 689\nvalue = [678, 11]", fillcolor="#e58139fb"] ;
11 -> 13 ;
14 [label="entropy = 0.391\nsamples = 26\nvalue = [24, 2]", fillcolor="#e58139ea"] ;
13 -> 14 ;
15 [label="entropy = 0.104\nsamples = 663\nvalue = [654, 9]", fillcolor="#e58139fb"] ;
13 -> 15 ;
16 [label="Balance <= 186598.5\nentropy = 0.601\nsamples = 314\nvalue = [268, 46]", fillcolor="#e58139d3"] ;
2 -> 16 ;
17 [label="EstimatedSalary <= 180438.312\nentropy = 0.573\nsamples = 309\nvalue = [267, 42]", fillcolor="#e58139d7"] ;
16 -> 17 ;
18 [label="Age <= 32.5\nentropy = 0.611\nsamples = 279\nvalue = [237, 42]", fillcolor="#e58139d2"] ;
17 -> 18 ;
19 [label="entropy = 0.417\nsamples = 95\nvalue = [87, 8]", fillcolor="#e58139e8"] ;
18 -> 19 ;
20 [label="entropy = 0.69\nsamples = 184\nvalue = [150, 34]", fillcolor="#e58139c5"] ;
18 -> 20 ;
21 [label="entropy = 0.0\nsamples = 30\nvalue = [30, 0]", fillcolor="#e58139ff"] ;
17 -> 21 ;
22 [label="HasCrCard <= 0.5\nentropy = 0.722\nsamples = 5\nvalue = [1, 4]", fillcolor="#399de5bf"] ;
16 -> 22 ;
23 [label="entropy = 0.0\nsamples = 4\nvalue = [0, 4]", fillcolor="#399de5ff"] ;
22 -> 23 ;
24 [label="entropy = 0.0\nsamples = 1\nvalue = [1, 0]", fillcolor="#e58139ff"] ;
22 -> 24 ;
25 [label="Balance <= 71474.516\nentropy = 0.521\nsamples = 1271\nvalue = [1122, 149]", fillcolor="#e58139dd"] ;
1 -> 25 ;
26 [label="Age <= 39.5\nentropy = 0.739\nsamples = 335\nvalue = [265, 70]", fillcolor="#e58139bc"] ;
25 -> 26 ;
27 [label="CreditScore <= 613.0\nentropy = 0.694\nsamples = 306\nvalue = [249, 57]", fillcolor="#e58139c5"] ;
26 -> 27 ;
28 [label="CreditScore <= 589.5\nentropy = 0.853\nsamples = 115\nvalue = [83, 32]", fillcolor="#e581399d"] ;
27 -> 28 ;
29 [label="entropy = 0.764\nsamples = 90\nvalue = [70, 20]", fillcolor="#e58139b6"] ;
28 -> 29 ;
30 [label="entropy = 0.999\nsamples = 25\nvalue = [13, 12]", fillcolor="#e5813914"] ;
28 -> 30 ;
31 [label="CreditScore <= 648.5\nentropy = 0.56\nsamples = 191\nvalue = [166, 25]", fillcolor="#e58139d9"] ;
27 -> 31 ;
32 [label="entropy = 0.183\nsamples = 36\nvalue = [35, 1]", fillcolor="#e58139f8"] ;
31 -> 32 ;
33 [label="entropy = 0.622\nsamples = 155\nvalue = [131, 24]", fillcolor="#e58139d0"] ;
31 -> 33 ;
34 [label="Balance <= 23682.225\nentropy = 0.992\nsamples = 29\nvalue = [16, 13]", fillcolor="#e5813930"] ;
26 -> 34 ;
35 [label="CreditScore <= 722.5\nentropy = 0.961\nsamples = 26\nvalue = [16, 10]", fillcolor="#e5813960"] ;
34 -> 35 ;
36 [label="entropy = 0.863\nsamples = 21\nvalue = [15, 6]", fillcolor="#e5813999"] ;
35 -> 36 ;
37 [label="entropy = 0.722\nsamples = 5\nvalue = [1, 4]", fillcolor="#399de5bf"] ;
35 -> 37 ;
38 [label="entropy = 0.0\nsamples = 3\nvalue = [0, 3]", fillcolor="#399de5ff"] ;
34 -> 38 ;
39 [label="IsActiveMember <= 0.5\nentropy = 0.418\nsamples = 936\nvalue = [857, 79]", fillcolor="#e58139e7"] ;
25 -> 39 ;
40 [label="Age <= 35.5\nentropy = 0.54\nsamples = 437\nvalue = [383, 54]", fillcolor="#e58139db"] ;
39 -> 40 ;
41 [label="Balance <= 108231.75\nentropy = 0.434\nsamples = 280\nvalue = [255, 25]", fillcolor="#e58139e6"] ;
40 -> 41 ;
42 [label="entropy = 0.235\nsamples = 78\nvalue = [75, 3]", fillcolor="#e58139f5"] ;
41 -> 42 ;
43 [label="entropy = 0.497\nsamples = 202\nvalue = [180, 22]", fillcolor="#e58139e0"] ;
41 -> 43 ;
44 [label="Balance <= 137049.422\nentropy = 0.69\nsamples = 157\nvalue = [128, 29]", fillcolor="#e58139c5"] ;
40 -> 44 ;
45 [label="entropy = 0.601\nsamples = 116\nvalue = [99, 17]", fillcolor="#e58139d3"] ;
44 -> 45 ;
46 [label="entropy = 0.872\nsamples = 41\nvalue = [29, 12]", fillcolor="#e5813995"] ;
44 -> 46 ;
47 [label="Gender <= 0.5\nentropy = 0.287\nsamples = 499\nvalue = [474, 25]", fillcolor="#e58139f2"] ;
39 -> 47 ;
48 [label="EstimatedSalary <= 130496.484\nentropy = 0.403\nsamples = 212\nvalue = [195, 17]", fillcolor="#e58139e9"] ;
47 -> 48 ;
49 [label="entropy = 0.232\nsamples = 132\nvalue = [127, 5]", fillcolor="#e58139f5"] ;
48 -> 49 ;
50 [label="entropy = 0.61\nsamples = 80\nvalue = [68, 12]", fillcolor="#e58139d2"] ;
48 -> 50 ;
51 [label="CreditScore <= 689.5\nentropy = 0.184\nsamples = 287\nvalue = [279, 8]", fillcolor="#e58139f8"] ;
47 -> 51 ;
52 [label="entropy = 0.259\nsamples = 183\nvalue = [175, 8]", fillcolor="#e58139f3"] ;
51 -> 52 ;
53 [label="entropy = 0.0\nsamples = 104\nvalue = [104, 0]", fillcolor="#e58139ff"] ;
51 -> 53 ;
54 [label="IsActiveMember <= 0.5\nentropy = 0.89\nsamples = 1359\nvalue = [941, 418]", fillcolor="#e581398e"] ;
0 -> 54 [labeldistance=2.5, labelangle=-45, headlabel="False"] ;
55 [label="Age <= 50.5\nentropy = 0.995\nsamples = 580\nvalue = [315, 265]", fillcolor="#e5813928"] ;
54 -> 55 ;
56 [label="NumOfProducts <= 0.5\nentropy = 0.933\nsamples = 450\nvalue = [293, 157]", fillcolor="#e5813976"] ;
55 -> 56 ;
57 [label="CreditScore <= 467.0\nentropy = 0.761\nsamples = 204\nvalue = [159, 45]", fillcolor="#e58139b7"] ;
56 -> 57 ;
58 [label="entropy = 0.0\nsamples = 4\nvalue = [0, 4]", fillcolor="#399de5ff"] ;
57 -> 58 ;
59 [label="Gender <= 0.5\nentropy = 0.732\nsamples = 200\nvalue = [159, 41]", fillcolor="#e58139bd"] ;
57 -> 59 ;
60 [label="entropy = 0.876\nsamples = 98\nvalue = [69, 29]", fillcolor="#e5813994"] ;
59 -> 60 ;
61 [label="entropy = 0.523\nsamples = 102\nvalue = [90, 12]", fillcolor="#e58139dd"] ;
59 -> 61 ;
62 [label="Balance <= 61462.609\nentropy = 0.994\nsamples = 246\nvalue = [134, 112]", fillcolor="#e581392a"] ;
56 -> 62 ;
63 [label="CreditScore <= 711.0\nentropy = 0.957\nsamples = 82\nvalue = [31, 51]", fillcolor="#399de564"] ;
62 -> 63 ;
64 [label="entropy = 0.998\nsamples = 61\nvalue = [29, 32]", fillcolor="#399de518"] ;
63 -> 64 ;
65 [label="entropy = 0.454\nsamples = 21\nvalue = [2, 19]", fillcolor="#399de5e4"] ;
63 -> 65 ;
66 [label="EstimatedSalary <= 138612.75\nentropy = 0.952\nsamples = 164\nvalue = [103, 61]", fillcolor="#e5813968"] ;
62 -> 66 ;
67 [label="entropy = 0.875\nsamples = 122\nvalue = [86, 36]", fillcolor="#e5813994"] ;
66 -> 67 ;
68 [label="entropy = 0.974\nsamples = 42\nvalue = [17, 25]", fillcolor="#399de552"] ;
66 -> 68 ;
69 [label="Gender <= 0.5\nentropy = 0.656\nsamples = 130\nvalue = [22, 108]", fillcolor="#399de5cb"] ;
55 -> 69 ;
70 [label="CreditScore <= 519.5\nentropy = 0.465\nsamples = 71\nvalue = [7, 64]", fillcolor="#399de5e3"] ;
69 -> 70 ;
71 [label="CreditScore <= 511.5\nentropy = 0.918\nsamples = 9\nvalue = [3, 6]", fillcolor="#399de57f"] ;
70 -> 71 ;
72 [label="entropy = 0.592\nsamples = 7\nvalue = [1, 6]", fillcolor="#399de5d4"] ;
71 -> 72 ;
73 [label="entropy = 0.0\nsamples = 2\nvalue = [2, 0]", fillcolor="#e58139ff"] ;
71 -> 73 ;
74 [label="Age <= 54.5\nentropy = 0.345\nsamples = 62\nvalue = [4, 58]", fillcolor="#399de5ed"] ;
70 -> 74 ;
75 [label="entropy = 0.619\nsamples = 26\nvalue = [4, 22]", fillcolor="#399de5d1"] ;
74 -> 75 ;
76 [label="entropy = 0.0\nsamples = 36\nvalue = [0, 36]", fillcolor="#399de5ff"] ;
74 -> 76 ;
77 [label="EstimatedSalary <= 168063.797\nentropy = 0.818\nsamples = 59\nvalue = [15, 44]", fillcolor="#399de5a8"] ;
69 -> 77 ;
78 [label="CreditScore <= 530.5\nentropy = 0.881\nsamples = 50\nvalue = [15, 35]", fillcolor="#399de592"] ;
77 -> 78 ;
79 [label="entropy = 0.0\nsamples = 5\nvalue = [0, 5]", fillcolor="#399de5ff"] ;
78 -> 79 ;
80 [label="entropy = 0.918\nsamples = 45\nvalue = [15, 30]", fillcolor="#399de57f"] ;
78 -> 80 ;
81 [label="entropy = 0.0\nsamples = 9\nvalue = [0, 9]", fillcolor="#399de5ff"] ;
77 -> 81 ;
82 [label="Age <= 56.5\nentropy = 0.715\nsamples = 779\nvalue = [626, 153]", fillcolor="#e58139c1"] ;
54 -> 82 ;
83 [label="Age <= 46.5\nentropy = 0.787\nsamples = 540\nvalue = [413, 127]", fillcolor="#e58139b1"] ;
82 -> 83 ;
84 [label="NumOfProducts <= 0.5\nentropy = 0.618\nsamples = 320\nvalue = [271, 49]", fillcolor="#e58139d1"] ;
83 -> 84 ;
85 [label="Balance <= 27926.664\nentropy = 0.434\nsamples = 157\nvalue = [143, 14]", fillcolor="#e58139e6"] ;
84 -> 85 ;
86 [label="entropy = 0.178\nsamples = 112\nvalue = [109, 3]", fillcolor="#e58139f8"] ;
85 -> 86 ;
87 [label="entropy = 0.802\nsamples = 45\nvalue = [34, 11]", fillcolor="#e58139ac"] ;
85 -> 87 ;
88 [label="Balance <= 85233.266\nentropy = 0.75\nsamples = 163\nvalue = [128, 35]", fillcolor="#e58139b9"] ;
84 -> 88 ;
89 [label="entropy = 0.965\nsamples = 59\nvalue = [36, 23]", fillcolor="#e581395c"] ;
88 -> 89 ;
90 [label="entropy = 0.516\nsamples = 104\nvalue = [92, 12]", fillcolor="#e58139de"] ;
88 -> 90 ;
91 [label="Balance <= 174451.656\nentropy = 0.938\nsamples = 220\nvalue = [142, 78]", fillcolor="#e5813973"] ;
83 -> 91 ;
92 [label="CreditScore <= 546.5\nentropy = 0.921\nsamples = 214\nvalue = [142, 72]", fillcolor="#e581397e"] ;
91 -> 92 ;
93 [label="entropy = 0.974\nsamples = 32\nvalue = [13, 19]", fillcolor="#399de551"] ;
92 -> 93 ;
94 [label="entropy = 0.87\nsamples = 182\nvalue = [129, 53]", fillcolor="#e5813996"] ;
92 -> 94 ;
95 [label="entropy = 0.0\nsamples = 6\nvalue = [0, 6]", fillcolor="#399de5ff"] ;
91 -> 95 ;
96 [label="Balance <= 185297.0\nentropy = 0.496\nsamples = 239\nvalue = [213, 26]", fillcolor="#e58139e0"] ;
82 -> 96 ;
97 [label="Balance <= 139596.656\nentropy = 0.474\nsamples = 236\nvalue = [212, 24]", fillcolor="#e58139e2"] ;
96 -> 97 ;
98 [label="Balance <= 139151.047\nentropy = 0.506\nsamples = 214\nvalue = [190, 24]", fillcolor="#e58139df"] ;
97 -> 98 ;
99 [label="entropy = 0.494\nsamples = 213\nvalue = [190, 23]", fillcolor="#e58139e0"] ;
98 -> 99 ;
100 [label="entropy = 0.0\nsamples = 1\nvalue = [0, 1]", fillcolor="#399de5ff"] ;
98 -> 100 ;
101 [label="entropy = 0.0\nsamples = 22\nvalue = [22, 0]", fillcolor="#e58139ff"] ;
97 -> 101 ;
102 [label="Tenure <= 7.0\nentropy = 0.918\nsamples = 3\nvalue = [1, 2]", fillcolor="#399de57f"] ;
96 -> 102 ;
103 [label="entropy = 0.0\nsamples = 2\nvalue = [0, 2]", fillcolor="#399de5ff"] ;
102 -> 103 ;
104 [label="entropy = 0.0\nsamples = 1\nvalue = [1, 0]", fillcolor="#e58139ff"] ;
102 -> 104 ;
}